{"Ravenclaw": {"weights": [0.009945011381362542, 0.09626947120080875, -0.5848216106232856, 0.42290099788585, 0.589072965530204, 0.35474085355348434, 1.0098968420770968, 0.823998438349456, 0.06232274809011098, 0.07642554510029288, 0.03249075698820915, 0.02474239096223599, 0.8784798355815352, 0.03669098545297986], "bias": -1.294409823807859}, "Slytherin": {"weights": [0.040397326070729586, -0.010232939458662726, -0.5478562563429222, -0.7164228044865377, 0.5487826248000728, -1.15966990061073, -0.32319448955312435, -0.47063086256422615, 0.031975067572458694, 0.17321859584921212, 0.47093414767317776, -0.01913597084617612, -0.5428377175449481, -0.39080090965821834], "bias": -2.0041143437184092}, "Gryffindor": {"weights": [-0.029370847805865824, -0.12270341809875962, 0.15253899354735767, -0.7258276884918233, -0.14760322754498054, 0.22846430626861408, -0.0894667325192962, 0.6661284651468166, -0.7383540541516905, -0.8493445855229592, -0.2083064435354216, -0.0342101190049278, -0.35939753056135476, 0.7483322392714656], "bias": -1.724639175052798}, "Hufflepuff": {"weights": [-0.02728939243120135, 0.09268300783502971, 0.9807612122675028, 0.9431914663397365, -0.9907837745848558, 0.49481885106979534, -0.6099787512724152, -1.0382416223428668, 0.5980734444796136, 0.5735546978350172, -0.3000713538964098, 0.00646824359913633, -0.05888952946095745, -0.4049482376664617], "bias": -1.090775301359073}}