{"Ravenclaw": {"weights": [0.00982553850231223, 0.09567595818172422, -0.583970184143345, 0.42227863518689324, 0.5882132818665976, 0.3544067422279328, 1.0083450541279522, 0.8227151326639222, 0.062376489122182584, 0.07651637352891255, 0.032669802116110806, 0.024680022406354887, 0.8772865701487607, 0.036558988274875553], "bias": -1.2901813848549684}, "Slytherin": {"weights": [0.03447506221406345, -0.009502886120054637, -0.5165997493328714, -0.6837920348072911, 0.5169460779545115, -1.0903897631999835, -0.31103077309818855, -0.4420324695019569, 0.036453481766245174, 0.15461561190416137, 0.4515726464902451, -0.015243832834707274, -0.5123783563204294, -0.3695810750388048], "bias": -1.82218759538524}, "Gryffindor": {"weights": [-0.02450568124866095, -0.10990169454012498, 0.15170124033276458, -0.6989145709295792, -0.14714653323758478, 0.21317673414267063, -0.08947568042996124, 0.6429340467494927, -0.7238524831948606, -0.825882335536678, -0.20981779203224768, -0.03486012496839422, -0.35436961079341306, 0.7300256882510151], "bias": -1.6305346706294417}, "Hufflepuff": {"weights": [-0.025482336482302966, 0.0868215349602296, 0.9458035849907402, 0.9071177251787768, -0.9548344898635662, 0.48037750693403813, -0.5878401554503817, -1.001015904238362, 0.5771258955264812, 0.5549941693622759, -0.29092165392086516, 0.007819923447811435, -0.05646273150000834, -0.3906095950757289], "bias": -1.0282592789637832}}