{"Ravenclaw": {"weights": [0.05479215630440224, 0.22254389029571395, -0.7149653317821256, 0.5381571269856757, 0.7163767384089829, 0.339977537355477, 1.1720034174151535, 0.9738511099375776, 0.059819787762447243, 0.026134597547035836, -0.009432307554726575, 0.044192185916788536, 1.0245111937966929, 0.06846735584568435], "bias": -2.174078341862745}, "Slytherin": {"weights": [0.08435904771897793, -0.009092807477586007, -0.6861431388220486, -0.8045425283205999, 0.696880266962931, -1.4476959506439804, -0.345144702107922, -0.5949946300948427, -0.011986761950635635, 0.3287640549375381, 0.5418207009321991, -0.06326858031685795, -0.6570590453095513, -0.48662973195012227], "bias": -2.938265841627151}, "Gryffindor": {"weights": [-0.12584869336478174, -0.3495238082216914, 0.1581612788714809, -0.9585326465096516, -0.14889950310146446, 0.4517348730854674, -0.07286762249535178, 0.8314167698223093, -0.7508538485239665, -0.9604694870588907, -0.15771410090606278, 0.006227438063314657, -0.3402253986966476, 0.8377570405268756], "bias": -2.6957362014503277}, "Hufflepuff": {"weights": [-0.0437890239332239, 0.16299869243888804, 1.258795658182473, 1.270596496597432, -1.29047363798083, 0.5737697039549082, -0.8076401480191688, -1.3390897052108983, 0.7584891026690278, 0.6747814190126533, -0.3487910212904917, -0.019044188337790244, -0.0802833690107604, -0.507352721137019], "bias": -1.7937100768292793}}