{"Ravenclaw": {"weights": [0.09635775567231805, 0.25129127622926845, -0.8256292491397642, 0.7137560243426683, 0.8121773122059988, 0.2607057545648134, 1.088559187116184, 1.0208047926997015, 0.07509369776502753, -0.08404503627123207, -0.005773607391652115, 0.05802884913940948, 1.1232295342662884, 0.1663353869358181], "bias": -2.556801392460032}, "Slytherin": {"weights": [0.1592936590010882, 0.03574840031122772, -0.8127202457318639, -0.7152539371882168, 0.8890329157313964, -1.5915792435422946, -0.32080553413554924, -0.7123864713924861, -0.19716215022474812, 0.7838470199499389, 0.6032101906325797, -0.14781296408148195, -0.7716136975429241, -0.5656018930195408], "bias": -3.691626457050906}, "Gryffindor": {"weights": [-0.31193570004357146, -0.8497974533412279, 0.16304055119041627, -1.7321954241760211, -0.11878764327454717, 1.3619956274184222, -0.17939464548959028, 1.1918891837782575, -0.38074828736389277, -0.7901520662496125, -0.46471252975041655, 0.09667774938600301, -0.27586782086641076, 0.8748395165252438], "bias": -3.6908018074551605}, "Hufflepuff": {"weights": [-0.05919312376503484, 0.2767697647972899, 1.3336089224972187, 1.5982715999992514, -1.4594663908212888, 0.5063907854757365, -1.0224257957550773, -1.4824257396838019, 0.8088607254455923, 0.5046588048651627, -0.23988830987743343, -0.031455538665053746, -0.04653591475726032, -0.5045744950150325], "bias": -2.312879231338062}}