{"Ravenclaw": {"weights": [0.029937176832557567, 0.17373139852472166, -0.6633002099789154, 0.48485758239241655, 0.6673696744774326, 0.36452439272741494, 1.1376057781340638, 0.9314746981662592, 0.057246618461044466, 0.056265287660097155, 0.00725180468710482, 0.03413075285324576, 0.9767762789175051, 0.05053854369710593], "bias": -1.802894327293104}, "Slytherin": {"weights": [0.058766580049947316, -0.01126963939801708, -0.6205049079057539, -0.7781085624356072, 0.6243239482247243, -1.3183575096231501, -0.34263261378902116, -0.5373435843620434, 0.015776573571190264, 0.23452133628199406, 0.5113284381302851, -0.03527981487473505, -0.6087363700573393, -0.44090197286350274], "bias": -2.474116077843051}, "Gryffindor": {"weights": [-0.0676207287325553, -0.21690307255873867, 0.15448546316846754, -0.8519675058995538, -0.14737644647493134, 0.3259765976710639, -0.08422180405451704, 0.7668113652124492, -0.7745298265231628, -0.9362922942827195, -0.186452465938134, -0.021721627969874185, -0.36402124366907773, 0.8151020217578712], "bias": -2.2331082277257672}, "Hufflepuff": {"weights": [-0.036396752394051456, 0.12712908966644315, 1.1489512397984154, 1.125944254252837, -1.1669100534904044, 0.5541392422707926, -0.7208470067415684, -1.2185620740475287, 0.6967318528111112, 0.6513366152960686, -0.33866748059060614, -0.004563173273148523, -0.07179915068732735, -0.4712888091739612], "bias": -1.4532528838281833}}